digraph Tree {
node [shape=box, style="filled, rounded", color="black", fontname=helvetica] ;
edge [fontname=helvetica] ;
0 [label="X[10] <= 8.5\ngini = 0.207\nsamples = 40689\nvalue = [35920, 4769]", fillcolor="#e89253"] ;
1 [label="X[7] <= 0.5\ngini = 0.167\nsamples = 33357\nvalue = [30295, 3062]", fillcolor="#e88e4d"] ;
0 -> 1 [labeldistance=2.5, labelangle=45, headlabel="True"] ;
2 [label="X[33] <= 0.5\ngini = 0.077\nsamples = 11630\nvalue = [11166, 464]", fillcolor="#e68641"] ;
1 -> 2 ;
3 [label="X[2] <= 1.5\ngini = 0.098\nsamples = 4477\nvalue = [4245, 232]", fillcolor="#e68844"] ;
2 -> 3 ;
4 [label="X[9] <= 2.5\ngini = 0.069\nsamples = 1293\nvalue = [1247, 46]", fillcolor="#e68640"] ;
3 -> 4 ;
5 [label="gini = 0.083\nsamples = 809\nvalue = [774, 35]", fillcolor="#e68742"] ;
4 -> 5 ;
6 [label="gini = 0.044\nsamples = 484\nvalue = [473, 11]", fillcolor="#e6843e"] ;
4 -> 6 ;
7 [label="X[8] <= 4.5\ngini = 0.11\nsamples = 3184\nvalue = [2998, 186]", fillcolor="#e78945"] ;
3 -> 7 ;
8 [label="X[4] <= 279.0\ngini = 0.074\nsamples = 883\nvalue = [849, 34]", fillcolor="#e68641"] ;
7 -> 8 ;
9 [label="gini = 0.08\nsamples = 409\nvalue = [392, 17]", fillcolor="#e68642"] ;
8 -> 9 ;
10 [label="gini = 0.069\nsamples = 474\nvalue = [457, 17]", fillcolor="#e68640"] ;
8 -> 10 ;
11 [label="X[1] <= 0.5\ngini = 0.123\nsamples = 2301\nvalue = [2149, 152]", fillcolor="#e78a47"] ;
7 -> 11 ;
12 [label="gini = 0.176\nsamples = 524\nvalue = [473, 51]", fillcolor="#e88f4e"] ;
11 -> 12 ;
13 [label="X[4] <= 637.5\ngini = 0.107\nsamples = 1777\nvalue = [1676, 101]", fillcolor="#e78945"] ;
11 -> 13 ;
14 [label="X[4] <= 149.5\ngini = 0.092\nsamples = 912\nvalue = [868, 44]", fillcolor="#e68743"] ;
13 -> 14 ;
15 [label="gini = 0.098\nsamples = 485\nvalue = [460, 25]", fillcolor="#e68844"] ;
14 -> 15 ;
16 [label="gini = 0.085\nsamples = 427\nvalue = [408, 19]", fillcolor="#e68742"] ;
14 -> 16 ;
17 [label="X[4] <= 1811.5\ngini = 0.123\nsamples = 865\nvalue = [808, 57]", fillcolor="#e78a47"] ;
13 -> 17 ;
18 [label="gini = 0.157\nsamples = 432\nvalue = [395, 37]", fillcolor="#e78d4c"] ;
17 -> 18 ;
19 [label="gini = 0.088\nsamples = 433\nvalue = [413, 20]", fillcolor="#e68743"] ;
17 -> 19 ;
20 [label="X[4] <= 270.5\ngini = 0.063\nsamples = 7153\nvalue = [6921, 232]", fillcolor="#e68540"] ;
2 -> 20 ;
21 [label="X[1] <= 1.5\ngini = 0.045\nsamples = 3288\nvalue = [3213, 75]", fillcolor="#e6843e"] ;
20 -> 21 ;
22 [label="X[4] <= -198.5\ngini = 0.039\nsamples = 2841\nvalue = [2784, 57]", fillcolor="#e6843d"] ;
21 -> 22 ;
23 [label="gini = 0.009\nsamples = 432\nvalue = [430, 2]", fillcolor="#e5823a"] ;
22 -> 23 ;
24 [label="X[8] <= 7.5\ngini = 0.045\nsamples = 2409\nvalue = [2354, 55]", fillcolor="#e6843e"] ;
22 -> 24 ;
25 [label="gini = 0.026\nsamples = 523\nvalue = [516, 7]", fillcolor="#e5833c"] ;
24 -> 25 ;
26 [label="X[9] <= 3.5\ngini = 0.05\nsamples = 1886\nvalue = [1838, 48]", fillcolor="#e6843e"] ;
24 -> 26 ;
27 [label="X[14] <= 0.5\ngini = 0.055\nsamples = 1472\nvalue = [1430, 42]", fillcolor="#e6853f"] ;
26 -> 27 ;
28 [label="X[4] <= 22.5\ngini = 0.047\nsamples = 921\nvalue = [899, 22]", fillcolor="#e6843e"] ;
27 -> 28 ;
29 [label="gini = 0.056\nsamples = 413\nvalue = [401, 12]", fillcolor="#e6853f"] ;
28 -> 29 ;
30 [label="gini = 0.039\nsamples = 508\nvalue = [498, 10]", fillcolor="#e6843d"] ;
28 -> 30 ;
31 [label="gini = 0.07\nsamples = 551\nvalue = [531, 20]", fillcolor="#e68640"] ;
27 -> 31 ;
32 [label="gini = 0.029\nsamples = 414\nvalue = [408, 6]", fillcolor="#e5833c"] ;
26 -> 32 ;
33 [label="gini = 0.077\nsamples = 447\nvalue = [429, 18]", fillcolor="#e68641"] ;
21 -> 33 ;
34 [label="X[1] <= 0.5\ngini = 0.078\nsamples = 3865\nvalue = [3708, 157]", fillcolor="#e68641"] ;
20 -> 34 ;
35 [label="X[9] <= 1.5\ngini = 0.101\nsamples = 1031\nvalue = [976, 55]", fillcolor="#e68844"] ;
34 -> 35 ;
36 [label="gini = 0.082\nsamples = 421\nvalue = [403, 18]", fillcolor="#e68742"] ;
35 -> 36 ;
37 [label="gini = 0.114\nsamples = 610\nvalue = [573, 37]", fillcolor="#e78946"] ;
35 -> 37 ;
38 [label="X[8] <= 12.5\ngini = 0.069\nsamples = 2834\nvalue = [2732, 102]", fillcolor="#e68640"] ;
34 -> 38 ;
39 [label="gini = 0.043\nsamples = 630\nvalue = [616, 14]", fillcolor="#e6843d"] ;
38 -> 39 ;
40 [label="X[14] <= 0.5\ngini = 0.077\nsamples = 2204\nvalue = [2116, 88]", fillcolor="#e68641"] ;
38 -> 40 ;
41 [label="X[4] <= 620.5\ngini = 0.061\nsamples = 1429\nvalue = [1384, 45]", fillcolor="#e6853f"] ;
40 -> 41 ;
42 [label="gini = 0.076\nsamples = 407\nvalue = [391, 16]", fillcolor="#e68641"] ;
41 -> 42 ;
43 [label="X[4] <= 1442.5\ngini = 0.055\nsamples = 1022\nvalue = [993, 29]", fillcolor="#e6853f"] ;
41 -> 43 ;
44 [label="gini = 0.036\nsamples = 438\nvalue = [430, 8]", fillcolor="#e5833d"] ;
43 -> 44 ;
45 [label="gini = 0.069\nsamples = 584\nvalue = [563, 21]", fillcolor="#e68640"] ;
43 -> 45 ;
46 [label="gini = 0.105\nsamples = 775\nvalue = [732, 43]", fillcolor="#e78845"] ;
40 -> 46 ;
47 [label="X[0] <= 2.5\ngini = 0.211\nsamples = 21727\nvalue = [19129, 2598]", fillcolor="#e99254"] ;
1 -> 47 ;
48 [label="X[31] <= 0.5\ngini = 0.196\nsamples = 20771\nvalue = [18478, 2293]", fillcolor="#e89152"] ;
47 -> 48 ;
49 [label="X[0] <= 0.5\ngini = 0.188\nsamples = 20353\nvalue = [18217, 2136]", fillcolor="#e89050"] ;
48 -> 49 ;
50 [label="gini = 0.399\nsamples = 577\nvalue = [418, 159]", fillcolor="#efb184"] ;
49 -> 50 ;
51 [label="X[25] <= 0.5\ngini = 0.18\nsamples = 19776\nvalue = [17799, 1977]", fillcolor="#e88f4f"] ;
49 -> 51 ;
52 [label="X[4] <= 800.5\ngini = 0.168\nsamples = 18329\nvalue = [16632, 1697]", fillcolor="#e88e4d"] ;
51 -> 52 ;
53 [label="X[1] <= 0.5\ngini = 0.143\nsamples = 11928\nvalue = [11006, 922]", fillcolor="#e78c4a"] ;
52 -> 53 ;
54 [label="X[26] <= 0.5\ngini = 0.19\nsamples = 3299\nvalue = [2948, 351]", fillcolor="#e89051"] ;
53 -> 54 ;
55 [label="X[8] <= 27.5\ngini = 0.213\nsamples = 2503\nvalue = [2199, 304]", fillcolor="#e99254"] ;
54 -> 55 ;
56 [label="gini = 0.234\nsamples = 2055\nvalue = [1777, 278]", fillcolor="#e99558"] ;
55 -> 56 ;
57 [label="gini = 0.109\nsamples = 448\nvalue = [422, 26]", fillcolor="#e78945"] ;
55 -> 57 ;
58 [label="gini = 0.111\nsamples = 796\nvalue = [749, 47]", fillcolor="#e78945"] ;
54 -> 58 ;
59 [label="X[8] <= 5.5\ngini = 0.124\nsamples = 8629\nvalue = [8058, 571]", fillcolor="#e78a47"] ;
53 -> 59 ;
60 [label="gini = 0.188\nsamples = 772\nvalue = [691, 81]", fillcolor="#e89050"] ;
59 -> 60 ;
61 [label="X[1] <= 1.5\ngini = 0.117\nsamples = 7857\nvalue = [7367, 490]", fillcolor="#e78946"] ;
59 -> 61 ;
62 [label="gini = 0.107\nsamples = 6510\nvalue = [6140, 370]", fillcolor="#e78945"] ;
61 -> 62 ;
63 [label="gini = 0.162\nsamples = 1347\nvalue = [1227, 120]", fillcolor="#e88d4c"] ;
61 -> 63 ;
64 [label="X[8] <= 16.5\ngini = 0.213\nsamples = 6401\nvalue = [5626, 775]", fillcolor="#e99254"] ;
52 -> 64 ;
65 [label="X[9] <= 1.5\ngini = 0.255\nsamples = 2818\nvalue = [2395, 423]", fillcolor="#ea975c"] ;
64 -> 65 ;
66 [label="X[5] <= 0.5\ngini = 0.308\nsamples = 982\nvalue = [795, 187]", fillcolor="#eb9f68"] ;
65 -> 66 ;
67 [label="gini = 0.364\nsamples = 502\nvalue = [382, 120]", fillcolor="#eda977"] ;
66 -> 67 ;
68 [label="gini = 0.24\nsamples = 480\nvalue = [413, 67]", fillcolor="#e99559"] ;
66 -> 68 ;
69 [label="X[26] <= 0.5\ngini = 0.224\nsamples = 1836\nvalue = [1600, 236]", fillcolor="#e99456"] ;
65 -> 69 ;
70 [label="gini = 0.252\nsamples = 1053\nvalue = [897, 156]", fillcolor="#ea975b"] ;
69 -> 70 ;
71 [label="gini = 0.183\nsamples = 783\nvalue = [703, 80]", fillcolor="#e88f50"] ;
69 -> 71 ;
72 [label="X[1] <= 0.5\ngini = 0.177\nsamples = 3583\nvalue = [3231, 352]", fillcolor="#e88f4f"] ;
64 -> 72 ;
73 [label="X[2] <= 2.5\ngini = 0.249\nsamples = 940\nvalue = [803, 137]", fillcolor="#e9965b"] ;
72 -> 73 ;
74 [label="gini = 0.217\nsamples = 476\nvalue = [417, 59]", fillcolor="#e99355"] ;
73 -> 74 ;
75 [label="gini = 0.28\nsamples = 464\nvalue = [386, 78]", fillcolor="#ea9a61"] ;
73 -> 75 ;
76 [label="X[8] <= 28.5\ngini = 0.149\nsamples = 2643\nvalue = [2428, 215]", fillcolor="#e78c4b"] ;
72 -> 76 ;
77 [label="gini = 0.164\nsamples = 2153\nvalue = [1959, 194]", fillcolor="#e88d4d"] ;
76 -> 77 ;
78 [label="gini = 0.082\nsamples = 490\nvalue = [469, 21]", fillcolor="#e68742"] ;
76 -> 78 ;
79 [label="X[5] <= 0.5\ngini = 0.312\nsamples = 1447\nvalue = [1167, 280]", fillcolor="#eb9f69"] ;
51 -> 79 ;
80 [label="gini = 0.491\nsamples = 428\nvalue = [243, 185]", fillcolor="#f9e1d0"] ;
79 -> 80 ;
81 [label="X[9] <= 1.5\ngini = 0.169\nsamples = 1019\nvalue = [924, 95]", fillcolor="#e88e4d"] ;
79 -> 81 ;
82 [label="gini = 0.186\nsamples = 483\nvalue = [433, 50]", fillcolor="#e89050"] ;
81 -> 82 ;
83 [label="gini = 0.154\nsamples = 536\nvalue = [491, 45]", fillcolor="#e78d4b"] ;
81 -> 83 ;
84 [label="gini = 0.469\nsamples = 418\nvalue = [261, 157]", fillcolor="#f5cdb0"] ;
48 -> 84 ;
85 [label="X[4] <= 1386.5\ngini = 0.435\nsamples = 956\nvalue = [651, 305]", fillcolor="#f1bc96"] ;
47 -> 85 ;
86 [label="gini = 0.401\nsamples = 541\nvalue = [391, 150]", fillcolor="#efb185"] ;
85 -> 86 ;
87 [label="gini = 0.468\nsamples = 415\nvalue = [260, 155]", fillcolor="#f4ccaf"] ;
85 -> 87 ;
88 [label="X[5] <= 0.5\ngini = 0.357\nsamples = 7332\nvalue = [5625, 1707]", fillcolor="#eda775"] ;
0 -> 88 [labeldistance=2.5, labelangle=-45, headlabel="False"] ;
89 [label="X[12] <= 1.0\ngini = 0.483\nsamples = 2724\nvalue = [1612, 1112]", fillcolor="#f7d8c2"] ;
88 -> 89 ;
90 [label="X[4] <= 379.5\ngini = 0.351\nsamples = 1283\nvalue = [992, 291]", fillcolor="#eda673"] ;
89 -> 90 ;
91 [label="gini = 0.29\nsamples = 448\nvalue = [369, 79]", fillcolor="#eb9c63"] ;
90 -> 91 ;
92 [label="X[8] <= 15.5\ngini = 0.379\nsamples = 835\nvalue = [623, 212]", fillcolor="#eeac7c"] ;
90 -> 92 ;
93 [label="gini = 0.413\nsamples = 408\nvalue = [289, 119]", fillcolor="#f0b58b"] ;
92 -> 93 ;
94 [label="gini = 0.341\nsamples = 427\nvalue = [334, 93]", fillcolor="#eca470"] ;
92 -> 94 ;
95 [label="X[12] <= 2.5\ngini = 0.49\nsamples = 1441\nvalue = [620, 821]", fillcolor="#cfe7f9"] ;
89 -> 95 ;
96 [label="X[10] <= 177.5\ngini = 0.415\nsamples = 922\nvalue = [271, 651]", fillcolor="#8bc6f0"] ;
95 -> 96 ;
97 [label="gini = 0.439\nsamples = 510\nvalue = [166, 344]", fillcolor="#99ccf2"] ;
96 -> 97 ;
98 [label="gini = 0.38\nsamples = 412\nvalue = [105, 307]", fillcolor="#7dbfee"] ;
96 -> 98 ;
99 [label="gini = 0.441\nsamples = 519\nvalue = [349, 170]", fillcolor="#f2be99"] ;
95 -> 99 ;
100 [label="X[10] <= 106.5\ngini = 0.225\nsamples = 4608\nvalue = [4013, 595]", fillcolor="#e99456"] ;
88 -> 100 ;
101 [label="gini = 0.448\nsamples = 417\nvalue = [276, 141]", fillcolor="#f2c19e"] ;
100 -> 101 ;
102 [label="X[12] <= 1.0\ngini = 0.193\nsamples = 4191\nvalue = [3737, 454]", fillcolor="#e89051"] ;
100 -> 102 ;
103 [label="X[10] <= 360.5\ngini = 0.14\nsamples = 2933\nvalue = [2711, 222]", fillcolor="#e78b49"] ;
102 -> 103 ;
104 [label="X[8] <= 16.5\ngini = 0.123\nsamples = 2526\nvalue = [2360, 166]", fillcolor="#e78a47"] ;
103 -> 104 ;
105 [label="X[10] <= 243.5\ngini = 0.15\nsamples = 1498\nvalue = [1376, 122]", fillcolor="#e78c4b"] ;
104 -> 105 ;
106 [label="gini = 0.232\nsamples = 419\nvalue = [363, 56]", fillcolor="#e99458"] ;
105 -> 106 ;
107 [label="X[4] <= 302.0\ngini = 0.115\nsamples = 1079\nvalue = [1013, 66]", fillcolor="#e78946"] ;
105 -> 107 ;
108 [label="gini = 0.094\nsamples = 484\nvalue = [460, 24]", fillcolor="#e68843"] ;
107 -> 108 ;
109 [label="gini = 0.131\nsamples = 595\nvalue = [553, 42]", fillcolor="#e78b48"] ;
107 -> 109 ;
110 [label="X[0] <= 1.5\ngini = 0.082\nsamples = 1028\nvalue = [984, 44]", fillcolor="#e68742"] ;
104 -> 110 ;
111 [label="gini = 0.106\nsamples = 586\nvalue = [553, 33]", fillcolor="#e78945"] ;
110 -> 111 ;
112 [label="gini = 0.049\nsamples = 442\nvalue = [431, 11]", fillcolor="#e6843e"] ;
110 -> 112 ;
113 [label="gini = 0.237\nsamples = 407\nvalue = [351, 56]", fillcolor="#e99559"] ;
103 -> 113 ;
114 [label="X[33] <= 0.5\ngini = 0.301\nsamples = 1258\nvalue = [1026, 232]", fillcolor="#eb9d66"] ;
102 -> 114 ;
115 [label="gini = 0.362\nsamples = 707\nvalue = [539, 168]", fillcolor="#eda877"] ;
114 -> 115 ;
116 [label="gini = 0.205\nsamples = 551\nvalue = [487, 64]", fillcolor="#e89253"] ;
114 -> 116 ;
}